{
    "aqua": {
        "materialien": [
            {
                "E": 100000
            }
        ],
        "querschnitte": [
            {
                "h": 0.41602,
                "b": 100000
            }
        ]
    },
    "sofimshc": {
        "knoten": {
            "1": {
                "x": 0,
                "z": 0,
                "sup": {
                    "x": -1,
                    "z": -1,
                    "y": -1
                },
                "alpha": 0.0
            },
            "2": {
                "x": 6,
                "z": 0,
                "sup": {
                    "x": 0,
                    "z": 0,
                    "y": 0
                },
                "alpha": 0.0
            },
            "3": {
                "x": 12,
                "z": 0,
                "sup": {
                    "x": 0,
                    "z": 0,
                    "y": 1000
                },
                "alpha": 0.0
            },
            "4": {
                "x": 12,
                "z": 6,
                "sup": {
                    "x": -1,
                    "z": -1,
                    "y": 0
                },
                "alpha": 0.0
            }
        },
        "staebe": {
            "1": {
                "l": 1,
                "r": 2,
                "EI": 6000,
                "EA": 1000000,
                "fixa": {
                    "N": -1,
                    "V": -1,
                    "M": -1
                },
                "fixe": {
                    "N": -1,
                    "V": -1,
                    "M": -1
                },
                "elems": 20,
                "L": 6.0,
                "alpha": 0.0,
                "points": [
                    0.0,
                    0.3,
                    0.6,
                    0.9,
                    1.2,
                    1.5,
                    1.8,
                    2.1,
                    2.4,
                    2.7,
                    3.0,
                    3.3,
                    3.6,
                    3.9,
                    4.2,
                    4.5,
                    4.8,
                    5.1,
                    5.4,
                    5.7,
                    6.0
                ]
            },
            "2": {
                "l": 2,
                "r": 3,
                "EI": 6000,
                "EA": 1000000,
                "fixa": {
                    "N": -1,
                    "V": -1,
                    "M": -1
                },
                "fixe": {
                    "N": -1,
                    "V": -1,
                    "M": -1
                },
                "elems": 20,
                "L": 6.0,
                "alpha": 0.0,
                "points": [
                    0.0,
                    0.3,
                    0.6,
                    0.9,
                    1.2,
                    1.5,
                    1.8,
                    2.1,
                    2.4,
                    2.7,
                    3.0,
                    3.3,
                    3.6,
                    3.9,
                    4.2,
                    4.5,
                    4.8,
                    5.1,
                    5.4,
                    5.7,
                    6.0
                ]
            },
            "3": {
                "l": 3,
                "r": 4,
                "EI": 6000,
                "EA": 1000000,
                "fixa": {
                    "N": -1,
                    "V": -1,
                    "M": -1
                },
                "fixe": {
                    "N": -1,
                    "V": -1,
                    "M": -1
                },
                "elems": 20,
                "L": 6.0,
                "alpha": -90.0,
                "points": [
                    0.0,
                    0.3,
                    0.6,
                    0.9,
                    1.2,
                    1.5,
                    1.8,
                    2.1,
                    2.4,
                    2.7,
                    3.0,
                    3.3,
                    3.6,
                    3.9,
                    4.2,
                    4.5,
                    4.8,
                    5.1,
                    5.4,
                    5.7,
                    6.0
                ]
            }
        },
        "federn": [
            {
                "knot": 2,
                "richtung": "y",
                "wert": 1000
            }
        ],
        "wgv": {
            "a": [
                [
                    1.0,
                    -0.0,
                    0.0,
                    0.0,
                    0.0,
                    0.0,
                    0.0
                ],
                [
                    0.0,
                    0.16666666666666666,
                    0.0,
                    0.0,
                    0.0,
                    0.0,
                    0.0
                ],
                [
                    0.0,
                    0.16666666666666666,
                    1.0,
                    0.0,
                    0.0,
                    0.0,
                    0.0
                ],
                [
                    -1.0,
                    0.0,
                    0.0,
                    1.0,
                    -0.0,
                    0.0,
                    0.0
                ],
                [
                    -0.0,
                    -0.16666666666666666,
                    1.0,
                    0.0,
                    0.16666666666666666,
                    0.0,
                    0.0
                ],
                [
                    -0.0,
                    -0.16666666666666666,
                    0.0,
                    0.0,
                    0.16666666666666666,
                    1.0,
                    0.0
                ],
                [
                    0.0,
                    0.0,
                    0.0,
                    -6.123233995736766e-17,
                    -1.0,
                    0.0,
                    0.0
                ],
                [
                    0.0,
                    0.0,
                    0.0,
                    0.16666666666666666,
                    -1.020538999289461e-17,
                    1.0,
                    0.0
                ],
                [
                    0.0,
                    0.0,
                    0.0,
                    0.16666666666666666,
                    -1.020538999289461e-17,
                    0.0,
                    1.0
                ],
                [
                    0.0,
                    0.0,
                    0.0,
                    0.0,
                    0.0,
                    1.0,
                    0.0
                ]
            ],
            "knot_deform": [
                [
                    1,
                    "x"
                ],
                [
                    1,
                    "z"
                ],
                [
                    1,
                    "y"
                ],
                [
                    2,
                    "x"
                ],
                [
                    2,
                    "z"
                ],
                [
                    2,
                    "y"
                ],
                [
                    3,
                    "y"
                ]
            ],
            "k": [
                [
                    166666.66666666666,
                    0.0,
                    0.0,
                    0.0,
                    0.0,
                    0.0,
                    0.0,
                    0.0,
                    0.0,
                    0.0
                ],
                [
                    0.0,
                    4000.0,
                    2000.0,
                    0.0,
                    0.0,
                    0.0,
                    0.0,
                    0.0,
                    0.0,
                    0.0
                ],
                [
                    0.0,
                    2000.0,
                    4000.0,
                    0.0,
                    0.0,
                    0.0,
                    0.0,
                    0.0,
                    0.0,
                    0.0
                ],
                [
                    0.0,
                    0.0,
                    0.0,
                    166666.66666666666,
                    0.0,
                    0.0,
                    0.0,
                    0.0,
                    0.0,
                    0.0
                ],
                [
                    0.0,
                    0.0,
                    0.0,
                    0.0,
                    4000.0,
                    2000.0,
                    0.0,
                    0.0,
                    0.0,
                    0.0
                ],
                [
                    0.0,
                    0.0,
                    0.0,
                    0.0,
                    2000.0,
                    4000.0,
                    0.0,
                    0.0,
                    0.0,
                    0.0
                ],
                [
                    0.0,
                    0.0,
                    0.0,
                    0.0,
                    0.0,
                    0.0,
                    166666.66666666666,
                    0.0,
                    0.0,
                    0.0
                ],
                [
                    0.0,
                    0.0,
                    0.0,
                    0.0,
                    0.0,
                    0.0,
                    0.0,
                    4000.0,
                    2000.0,
                    0.0
                ],
                [
                    0.0,
                    0.0,
                    0.0,
                    0.0,
                    0.0,
                    0.0,
                    0.0,
                    2000.0,
                    4000.0,
                    0.0
                ],
                [
                    0.0,
                    0.0,
                    0.0,
                    0.0,
                    0.0,
                    0.0,
                    0.0,
                    0.0,
                    0.0,
                    1000.0
                ]
            ],
            "K": [
                [
                    333333.3333333333,
                    0.0,
                    0.0,
                    -166666.66666666666,
                    0.0,
                    0.0,
                    0.0
                ],
                [
                    0.0,
                    666.6666666666666,
                    0.0,
                    0.0,
                    -333.3333333333333,
                    -1000.0,
                    0.0
                ],
                [
                    0.0,
                    5.684341886080802e-14,
                    8000.0,
                    0.0,
                    1000.0,
                    2000.0,
                    0.0
                ],
                [
                    -166666.66666666666,
                    0.0,
                    0.0,
                    166999.99999999997,
                    1.0184979212908822e-11,
                    1000.0,
                    1000.0
                ],
                [
                    0.0,
                    -333.3333333333333,
                    1000.0,
                    1.0184979212908822e-11,
                    166999.99999999997,
                    999.9999999999999,
                    -6.123233995736766e-14
                ],
                [
                    0.0,
                    -1000.0,
                    2000.0,
                    1000.0,
                    1000.0,
                    9000.0,
                    2000.0
                ],
                [
                    0.0,
                    0.0,
                    0.0,
                    1000.0,
                    -6.123233995736766e-14,
                    2000.0,
                    4000.0
                ]
            ]
        }
    },
    "sofiload": {
        "LF_Komb": {
            "G_1": {
                "GAMU": 1.35,
                "GAMF": 1.0,
                "PSI0": 1.0,
                "PSI1": 1.0,
                "PSI2": 1.0
            },
            "G_2": {
                "GAMU": 1.35,
                "GAMF": 1.0,
                "PSI0": 1.0,
                "PSI1": 1.0,
                "PSI2": 1.0
            },
            "Q_1": {
                "GAMU": 1.5,
                "GAMF": 0.0,
                "PSI0": 0.8,
                "PSI1": 0.3,
                "PSI2": 0.2
            }
        },
        "LF": {
            "1": {
                "type": "G_1",
                "knot": [],
                "stab": [
                    {
                        "nr": 1,
                        "p_zl": 2,
                        "p_zr": 2,
                        "p_xl": 0,
                        "p_xr": 0
                    },
                    {
                        "nr": 2,
                        "p_zl": 2,
                        "p_zr": 2,
                        "p_xl": 0,
                        "p_xr": 0
                    }
                ],
                "wgv": {
                    "s_0": [
                        0.0,
                        6.0,
                        -6.0,
                        0.0,
                        6.0,
                        -6.0,
                        0.0,
                        0.0,
                        0.0,
                        0.0
                    ],
                    "P_0": [
                        0.0,
                        12.0,
                        0.0,
                        0.0,
                        6.0,
                        0.0,
                        0.0
                    ],
                    "P_quer": [
                        0.0,
                        0.0,
                        0.0,
                        0.0,
                        0.0,
                        0.0,
                        0.0
                    ],
                    "P": [
                        0.0,
                        12.0,
                        0.0,
                        0.0,
                        6.0,
                        6.0,
                        0.0
                    ]
                }
            }
        }
    },
    "ase": {
        "1": {
            "V": [
                -1.1985759041549e-05,
                0.024031864716016194,
                -0.0010080601456461092,
                -2.3971518083098003e-05,
                6.59846314418443e-05,
                0.003999248266863514,
                -0.0019936312539109826
            ],
            "v": [
                -1.1985759041549e-05,
                0.0040053107860026985,
                0.0029972506403565893,
                -1.1985759041549003e-05,
                -0.0050023734930751676,
                4.934919434456363e-06,
                -6.59846314418443e-05,
                0.003995253013849664,
                -0.001997626506924832,
                0.003999248266863514
            ],
            "s_II": [
                -1.9976265069248331,
                28.01574442472397,
                13.999624133431752,
                -1.9976265069248338,
                -13.999624133431759,
                -15.98500730841251,
                -10.997438573640716,
                11.985759041548993,
                0.0,
                3.999248266863514
            ],
            "s_I": [
                -1.9976265069248331,
                -28.01574442472397,
                13.999624133431752,
                -1.9976265069248338,
                13.999624133431759,
                -15.98500730841251,
                -10.997438573640716,
                -11.985759041548993,
                0.0,
                3.999248266863514
            ],
            "s": {
                "1": {
                    "N": [
                        -1.9976265069248331,
                        -1.9976265069248331,
                        -1.9976265069248331,
                        -1.9976265069248331,
                        -1.9976265069248331,
                        -1.9976265069248331,
                        -1.9976265069248331,
                        -1.9976265069248331,
                        -1.9976265069248331,
                        -1.9976265069248331,
                        -1.9976265069248331,
                        -1.9976265069248331,
                        -1.9976265069248331,
                        -1.9976265069248331,
                        -1.9976265069248331,
                        -1.9976265069248331,
                        -1.9976265069248331,
                        -1.9976265069248331,
                        -1.9976265069248331,
                        -1.9976265069248331,
                        -1.9976265069248331
                    ],
                    "M": [
                        -28.01574442472397,
                        -24.20497599681618,
                        -20.5742075689084,
                        -17.12343914100061,
                        -13.852670713092827,
                        -10.761902285185037,
                        -7.851133857277252,
                        -5.120365429369464,
                        -2.569597001461684,
                        -0.1988285735538966,
                        1.991939854353891,
                        4.0027082822616755,
                        5.833476710169464,
                        7.484245138077249,
                        8.955013565985036,
                        10.245781993892821,
                        11.356550421800607,
                        12.287318849708393,
                        13.038087277616178,
                        13.608855705523965,
                        13.999624133431752
                    ],
                    "V": [
                        13.002561426359286,
                        12.402561426359288,
                        11.802561426359286,
                        11.202561426359287,
                        10.602561426359287,
                        10.002561426359286,
                        9.402561426359286,
                        8.802561426359286,
                        8.202561426359287,
                        7.602561426359286,
                        7.002561426359287,
                        6.402561426359287,
                        5.802561426359286,
                        5.202561426359287,
                        4.602561426359286,
                        4.002561426359287,
                        3.402561426359287,
                        2.8025614263592873,
                        2.202561426359286,
                        1.6025614263592862,
                        1.0025614263592866
                    ],
                    "w": [
                        -1.1990408665951691e-18,
                        0.00020047866211565825,
                        0.000764256964183561,
                        0.0016368733797850897,
                        0.0027665663825016265,
                        0.00410427444591456,
                        0.005603636043605268,
                        0.007220989649155134,
                        0.008915373736145538,
                        0.010648526778157875,
                        0.012384887248773515,
                        0.014091593621573847,
                        0.015738484370140256,
                        0.017298097968054125,
                        0.018745672888896833,
                        0.02005914760624976,
                        0.0212191605936943,
                        0.02220905032481183,
                        0.023014855273183737,
                        0.023625313912391397,
                        0.024031864716016194
                    ]
                },
                "2": {
                    "N": [
                        -1.9976265069248338,
                        -1.9976265069248338,
                        -1.9976265069248338,
                        -1.9976265069248338,
                        -1.9976265069248338,
                        -1.9976265069248338,
                        -1.9976265069248338,
                        -1.9976265069248338,
                        -1.9976265069248338,
                        -1.9976265069248338,
                        -1.9976265069248338,
                        -1.9976265069248338,
                        -1.9976265069248338,
                        -1.9976265069248338,
                        -1.9976265069248338,
                        -1.9976265069248338,
                        -1.9976265069248338,
                        -1.9976265069248338,
                        -1.9976265069248338,
                        -1.9976265069248338,
                        -1.9976265069248338
                    ],
                    "M": [
                        13.999624133431759,
                        14.210392561339544,
                        14.241160989247332,
                        14.091929417155118,
                        13.762697845062904,
                        13.253466272970691,
                        12.564234700878478,
                        11.695003128786265,
                        10.645771556694054,
                        9.416539984601838,
                        8.007308412509623,
                        6.418076840417412,
                        4.648845268325198,
                        2.6996136962329835,
                        0.5703821241407683,
                        -1.7388494479514431,
                        -4.228081020043653,
                        -6.897312592135868,
                        -9.746544164228085,
                        -12.7757757363203,
                        -15.985007308412511
                    ],
                    "V": [
                        1.0025614263592884,
                        0.4025614263592887,
                        -0.19743857364071182,
                        -0.7974385736407115,
                        -1.3974385736407116,
                        -1.9974385736407116,
                        -2.5974385736407117,
                        -3.197438573640712,
                        -3.7974385736407115,
                        -4.397438573640712,
                        -4.997438573640712,
                        -5.597438573640711,
                        -6.197438573640712,
                        -6.7974385736407115,
                        -7.397438573640712,
                        -7.997438573640712,
                        -8.597438573640712,
                        -9.19743857364071,
                        -9.797438573640711,
                        -10.397438573640713,
                        -10.99743857364071
                    ],
                    "w": [
                        0.024031864716016194,
                        0.024228646157639522,
                        0.024212496710842753,
                        0.023982954849207275,
                        0.02354225904631447,
                        0.022895347775745718,
                        0.02204985951108241,
                        0.02101613272590593,
                        0.01980720589379765,
                        0.018438817488338952,
                        0.016929405983111236,
                        0.015300109851695876,
                        0.013574767567674253,
                        0.011779917604627746,
                        0.009944798436137759,
                        0.008101348535785648,
                        0.006284206377152807,
                        0.004530710433820632,
                        0.002880899179370477,
                        0.0013775110873837577,
                        6.598463144184016e-05
                    ]
                },
                "3": {
                    "N": [
                        -10.997438573640716,
                        -10.997438573640716,
                        -10.997438573640716,
                        -10.997438573640716,
                        -10.997438573640716,
                        -10.997438573640716,
                        -10.997438573640716,
                        -10.997438573640716,
                        -10.997438573640716,
                        -10.997438573640716,
                        -10.997438573640716,
                        -10.997438573640716,
                        -10.997438573640716,
                        -10.997438573640716,
                        -10.997438573640716,
                        -10.997438573640716,
                        -10.997438573640716,
                        -10.997438573640716,
                        -10.997438573640716,
                        -10.997438573640716,
                        -10.997438573640716
                    ],
                    "M": [
                        -11.985759041548993,
                        -11.386471089471543,
                        -10.787183137394095,
                        -10.187895185316645,
                        -9.588607233239195,
                        -8.989319281161745,
                        -8.390031329084294,
                        -7.790743377006844,
                        -7.191455424929397,
                        -6.592167472851947,
                        -5.992879520774497,
                        -5.3935915686970475,
                        -4.794303616619597,
                        -4.195015664542147,
                        -3.595727712464697,
                        -2.9964397603872484,
                        -2.3971518083097996,
                        -1.7978638562323492,
                        -1.1985759041548991,
                        -0.5992879520774489,
                        0.0
                    ],
                    "V": [
                        1.9976265069248322,
                        1.9976265069248322,
                        1.9976265069248322,
                        1.9976265069248322,
                        1.9976265069248322,
                        1.9976265069248322,
                        1.9976265069248322,
                        1.9976265069248322,
                        1.9976265069248322,
                        1.9976265069248322,
                        1.9976265069248322,
                        1.9976265069248322,
                        1.9976265069248322,
                        1.9976265069248322,
                        1.9976265069248322,
                        1.9976265069248322,
                        1.9976265069248322,
                        1.9976265069248322,
                        1.9976265069248322,
                        1.9976265069248322,
                        1.9976265069248322
                    ],
                    "w": [
                        2.3971518083098006e-05,
                        -0.0010874079890445308,
                        -0.002027990429830091,
                        -0.0028067651235547364,
                        -0.0034327213894996306,
                        -0.0039148485469459385,
                        -0.0042621359151748224,
                        -0.004483572813467441,
                        -0.004588148561104954,
                        -0.004584852477368529,
                        -0.004482673881539323,
                        -0.004290602092898501,
                        -0.004017626430727222,
                        -0.0036727362143066525,
                        -0.003264920762917947,
                        -0.0028031693958422686,
                        -0.0022964714323607856,
                        -0.0017538161917546593,
                        -0.0011841929933050434,
                        -0.0005965911562930979,
                        0.0
                    ]
                }
            }
        }
    },
    "maxima": {},
    "aqb": []
}